69
55
41
27
10
2
-14
-6
11
20
16
-18
31
-5
-24
12
-23
53
29
49
65
55
34
50
24
-51
-10
8
69
59
22
27
9
15
12
-12
101
-32
-55
28
19
47
43
28
21
9
16
31
2
42
-17
-30
86
-11
-14
52
0
10
9
12
6
-41
25
38
-17
-9
-13
5
6
-19
-4
97
-5
17
5
44
33
-5
30
30
-11
39
57
12
40
18
27
-2
15
-16
56
11
6
74
-7
24
26
0
9
1
-2
26
7
-17
41
27
12
23
-24
41
22
40
59
8
25
93
92
2
13
46
10
-4
4
11
-61
24
17
-17
54
23
22
19
-12
-20
31
10
-13
43
51
15
13
-4
7
15
-19
-16
31
28
0
-21
-20
-4
11
0
18
10
49
42
35
61
108
36
-7
-23
27
19
28
0
-8
60
-8
28
27
61
59
1
47
13
35
51
-25
32
27
-14
28
-11
58
35
38
26
38
-35
-4
22
-15
-8
31
20
53
33
41
29
37
36
-3
81
34
-2
-23
0
16
7
-10
-10
17
9
4
36
20
74
65
17
21
26
13
116
18
41
32
-44
14
36
56
-18
29
4
-8
16
18
27
13
5
0
16
13
18
-5
43
-31
41
-7
33
26
63
24
48
-5
21
35
13
61
50
46
26
10
32
48
2
6
2
-30
33
-3
44
-27
4
35
-12
74
15
50
22
29
19
27
14
86
-2
23
19
3
8
43
5
13
46
19
45
18
43
24
-7
22
26
74
101
38
26
41
9
-4
29
-12
34
40
44
63
-16
-19
66
-11
48
-8
48
63
75
9
56
17
103
-6
-19
28
-32
30
3
14
16
-8
47
27
30
38
-27
23
28
23
33
100
-8
21
15
-36
25
46
-1
4
40
3
39
44
-29
15
17
10
8
32
43
16
31
5
101
48
22
14
-77
7
35
31
-1
-21
1
22
25
20
55
28
50
20
8
51
-10
4
-43
71
31
20
-7
40
47
52
33
56
52
14
18
7
11
16
60
-2
18
32
-6
-6
-9
-15
20
17
52
66
47
25
13
23
-13
29
5
-14
31
-3
19
-2
-32
-32
-43
-4
12
38
52
68
